'{"x":50,"y":578.0050543209672,"size":70,"width":70,"height":35,"Oheight":70,"crouchHeight":35,"color":"rgba(223,204,67,1)","Yspeed":-0.700505432096737,"JumpForce":30,"IsInAir":true,"eyesColor":"rgba(240,10,141,1)","IsCrouching":true,"isDead":false,"inputs":[578.0050543209672,-0.700505432096737,1,1,-252.99494567903275,-272.99494567903275,-85,-125,0],"brain":{"inputsCount":9,"HiddenCount":25,"OutputsCount":3,"weights_IH":{"rows":25,"cols":9,"matrix":[[-0.2697478379905556,-0.5701209249678031,0.39566798525181285,-0.09448706203046081,0.1050256648815011,-0.07224211664978308,0.36451095737933614,-0.04497436019740997,-0.31753817902226333],[0.16397796976112797,0.29692726996668284,-0.21344979909734493,-0.17484070670837215,-0.14036538937974263,0.18575418183329281,-0.20269708781717197,0.4193485154448562,-0.22878974511082661],[-0.23681575611159855,0.4059564505823571,0.31592993796502183,-0.3265662299130066,0.026179598344573285,0.020523881180175105,-0.2043248249776246,-0.35201591315645764,0.10139412035093892],[0.0781579516099232,-0.14682644629217745,-0.06755415188369635,0.2008982547308592,-0.030741522371025815,0.11635577324241454,0.3813149964432402,0.410620986578555,-0.19632925708800766],[-0.19787213469731216,0.08332508505512518,-0.13710766981614683,-0.3332639739664937,0.11778262648935074,-0.14471213160509727,-0.27923382278711373,-0.2363857842041941,0.21707261790606633],[-0.14590016382948617,0.2884016915825809,0.08873946174750103,-0.2923386979767001,-0.16013945949573272,-0.3815136604898541,-0.08128167655770448,-0.01223264344286168,0.04438114280639577],[0.025518845097421,-0.1709619503875792,-0.05360173175229058,-0.10541766635690074,0.4480641349485389,-0.011439372503153987,0.20837574089018196,0.0383839027574506,0.07153604658773785],[-0.03213256106124805,0.10623285643412958,-0.08150541334273048,-0.2021050813898912,0.047736098126706844,-0.12787864928376474,0.21441998900328713,0.03830679480076166,0.16319516098690345],[0.0983822279239684,-0.017614004542369152,0.21352929795522238,0.42063998254482443,-0.38312484461897434,-0.17835130162134571,-0.11874195704409074,0.2441570583126254,0.05216460936839687],[0.19169129344879854,0.4904323360413688,0.0032631262467493483,0.3077273162807136,0.3302119156504395,-0.05208580369027386,0.3486470727354586,0.2278442779326945,-0.3767114586424196],[0.22832923704494168,-0.011558561268324552,-0.1171135908591058,0.15936346650990474,-0.324794252536479,-0.5231342665195906,0.2636998777877685,0.00221836902266892,-0.18524667891828328],[0.1462975292479154,-0.2031641907507243,-0.2727631891818729,-0.08088544127493993,0.38559570283734207,-0.07223725905461231,0.13325865862595637,0.010494087192297576,0.47487012008039475],[-0.21632104510933467,-0.202342358110217,-0.005632322105886489,0.2881959287486783,-0.46429715236784086,0.2716582274762544,-0.03044574271020012,-0.2735169652414373,-0.19503251475865985],[0.12282020242393629,-0.2286280691684533,0.14780214660258945,-0.022866002921169637,0.1252787192698907,0.014602697700917058,0.10158866650378662,-0.12610506358487988,0.0485320318542519],[-0.06197016970100344,-0.026153965580284044,-0.081745684825591,0.08271410910915938,0.3790132501487874,-0.048106121286475984,-0.055770370441265205,-0.08072172550661505,-0.29799336014291794],[0.11700299347033058,-0.10765860335588101,0.29595631105752884,0.1022255053411866,-0.39584988432447005,-0.11920142096250602,0.19037883347227139,-0.021260327605158946,0.08555480112419075],[0.2385181298357983,-0.03332718935119925,-0.19404683345792226,0.2061423524184598,0.4548775278867969,0.09101739446961987,-0.011503034545539359,-0.15609772324507049,0.3003063049265389],[-0.16957325786742333,-0.2816410357956757,-0.5353144324768823,0.0907062740577213,-0.41817056479831827,0.3492856607856692,0.11597131649948994,-0.2570747938742718,0.20272845351273552],[-0.38693250666791074,-0.05655957456515255,0.181366042802812,-0.07380007306741226,0.06507739982242963,-0.11186499780552257,0.15978200505355783,-0.018677840982011293,-0.07620811221125745],[-0.024037079432276065,0.029189922380155275,0.13109598973302405,0.09361925218456252,0.018509618726902433,0.5739892420454841,-0.23666727480097036,-0.063462429378003,0.3591325256973915],[0.18952991478511128,0.3702459302233933,-0.2122013746807672,0.012489838354378335,0.04095521656493341,0.2851215203315603,0.09256018656212359,-0.14788541480419948,0.423879209223273],[-0.35798069151214096,-0.20928100412909323,-0.2817909517620244,-0.01427389781300159,0.11987535338742877,0.24176169569100306,0.19594566188684534,0.1294960864958769,-0.24120340689729278],[-0.22323346012310444,-0.36015446127614303,-0.12507066927993712,-0.11700219831390476,0.23555014353541154,0.05334932680688828,-0.33820390197476946,-0.503844894936655,-0.1283759422092053],[0.27966400066759844,0.08660571437690229,0.009793720289563823,-0.2614465480644797,-0.18532642661223558,-0.2058262803025253,0.3290059368103819,-0.29999946637315844,-0.04434234896526011],[-0.35801274181912324,-0.13551657900009545,0.30515090891024677,0.4830430932282123,-0.1587135838168222,0.13141097602433918,-0.1554259264228991,-0.0999089288218194,-0.10508842225653461]]},"bias_H":{"rows":25,"cols":1,"matrix":[[-0.2370038072591806],[0.007035710251385163],[0.1449141251115677],[0.16455487355824583],[-0.3324641955188168],[-0.46298372153349365],[-0.11362578775424477],[-0.2640077097846474],[0.048208962492776786],[0.2420942185676685],[0.1449515837862109],[-0.05615991427426306],[-0.39314312755286474],[-0.05939119926732847],[0.06662907115549133],[0.15041313018429509],[0.05687854030783979],[0.10018125526635108],[-0.09850297271213772],[-0.007740607802565663],[0.414389193469436],[-0.019455816887092192],[0.08121328571637282],[-0.1143321032547725],[0.17648234244445643]]},"weights_HO":{"rows":3,"cols":25,"matrix":[[-0.17307540059822063,-0.11135133462058382,0.14077921890205847,-0.2184160305186175,-0.17990196650701992,0.01518698241750116,-0.2695870168548974,0.4151731060759964,0.1990594239286272,-0.1791380795758578,-0.01274684068423037,0.011948099213843665,0.02038412399930692,0.14403192382294855,0.15697426561352185,-0.36140864038072906,-0.33829079896383607,-0.194811388364227,0.003661049839626257,0.12942921655801468,0.38685569019756505,-0.3608272678866578,-0.28029820376019066,0.2600789476465058,-0.5840832109454355],[-0.03119359631867162,0.044481050599994396,0.14746400962564743,-0.4146399005239234,-0.21719320183099378,0.07314705065411586,-0.13671261004249277,0.23943288883341485,0.12144400643024555,0.22915379187719864,-0.1977316706944626,0.052094845448317995,0.10801959150979229,-0.2906051806378769,0.14546359132987094,-0.040898274648225263,-0.1215663670240931,0.3119941500020656,0.16925831137645872,-0.11464552203125315,0.2578432206722888,-0.1980792872601411,0.11144539083722063,0.2701002549595647,0.17884054909461278],[0.2728903029323022,-0.24627188352678053,0.3829811614472092,0.17492049512946395,0.31103439064459804,0.32575103982602516,-0.1679081790084064,-0.13970925021045238,0.10860692811174236,-0.22180580193674218,-0.14146695574286483,-0.12799618854074152,0.03284122339693746,-0.13548747825413504,0.12726369959204692,-0.13801825982931368,-0.3740805671878767,-0.028688438200230815,-0.030719519329225103,0.18384808123400537,0.252162622185699,-0.25591852626150147,0.18308945280083566,0.09713378913791927,0.06007087785971982]]},"bias_O":{"rows":3,"cols":1,"matrix":[[-0.10627609975876526],[-0.042548109215572116],[0.026648941412527966]]}},"score":43558}'